%YAML:1.0
my_svm: !!opencv-ml-svm
   svm_type: C_SVC
   kernel: { type:LINEAR }
   C: 1.
   term_criteria: { epsilon:2.2204460492503131e-016, iterations:1000 }
   var_all: 1000
   var_count: 1000
   class_count: 2
   class_labels: !!opencv-matrix
      rows: 1
      cols: 2
      dt: i
      data: [ 0, 1 ]
   sv_total: 1
   support_vectors:
      - [ 0., 2.23645717e-002, -5.55555560e-002, 0., 6.04312681e-003, 0.,
          -2.32320800e-002, 0., 0., -2.70270277e-002, 8.95327516e-003,
          1.79904909e-003, 1.08022420e-002, 7.93429743e-003, 0.,
          1.79904909e-003, 3.53546487e-003, 1.20709033e-003,
          4.11757827e-003, 0., 0., 3.34234606e-003, 1.54923704e-002,
          2.10195733e-003, 0., 2.62744655e-003, 5.39714703e-003, 0.,
          1.51779468e-003, 7.63343833e-003, 3.79494787e-003,
          4.72940365e-003, 0., 3.79494787e-003, 0., 1.79904909e-003,
          1.79904909e-003, 3.79494787e-003, 4.82836133e-003, 0., 0., 0.,
          0., 3.59809818e-003, 1.79904909e-003, 3.34234606e-003,
          3.34234606e-003, 2.60479026e-003, 0., 1.20709033e-003, 0., 0.,
          0., 0., -7.58979172e-002, 0., 3.79494787e-003, 0., 0., 0., 0.,
          1.20709033e-003, 2.01767008e-003, 0., 2.53379368e-003,
          1.43923927e-002, 0., 0., 0., 3.79494787e-003, 0.,
          1.25933429e-002, 1.51779468e-003, 0., 0., 1.79904909e-003,
          5.20958053e-003, 8.73949286e-003, 6.65137172e-003, 0.,
          3.79494787e-003, 3.59809818e-003, 6.04312681e-003, 0., 0., 0.,
          0., 0., 0., 7.58989574e-003, 1.51779468e-003, 0.,
          2.36470182e-003, 8.23515654e-003, 6.68466324e-003,
          8.99524521e-003, 0., 0., 6.01227861e-003, 0., 0., 0.,
          1.79904909e-003, 0., 3.81671917e-003, 0., 1.79904909e-003, 0.,
          -2.52279788e-002, 0., 3.79494787e-003, 3.59809818e-003,
          6.65137172e-003, 0., 0., 0., 0., 0., 1.79904909e-003,
          9.19209514e-003, 0., 1.79904909e-003, 0., 0., 0., 0.,
          1.79904909e-003, 3.59809818e-003, -1.94371324e-002,
          -5.43843955e-003, 5.14139514e-003, -4.65603098e-002, 0.,
          4.80518816e-003, 0., -4.84600589e-002, 0., 0., 0., 0., 0.,
          3.81671917e-003, 4.21322975e-003, -2.70270277e-002,
          3.00613930e-003, 0., 0., 2.53379368e-003, 1.51779468e-003, 0.,
          1.79904909e-003, 0., 0., 0., 0., 1.20709033e-003,
          1.79904909e-003, 0., 0., 9.72028170e-003, 0., 1.79904909e-003,
          0., -5.11517152e-002, 6.68469211e-003, 0., 2.53379368e-003,
          5.39714703e-003, 0., 0., -2.70270277e-002, 1.79904909e-003, 0.,
          3.34234606e-003, 1.07942941e-002, 0., 0., 0., 0.,
          6.68469211e-003, 1.79904909e-003, 0., 0., 8.48374143e-003,
          3.34234606e-003, 0., 0., 0., 0., 3.79494787e-003,
          4.72940365e-003, 0., 0., 7.19619635e-003, 0., 1.79904909e-003,
          0., 0., 1.51779468e-003, 3.93197546e-003, 1.17456326e-002, 0.,
          3.31684365e-003, 1.57646788e-003, 2.01767008e-003, 0.,
          4.80518816e-003, 3.34234606e-003, 0., 0., 1.03481645e-002,
          1.79904909e-003, 0., -2.26231888e-002, 0., 3.81671917e-003, 0.,
          5.59399696e-003, 6.20288821e-003, 4.11757827e-003,
          5.20958053e-003, 0., 0., 0., 0., 0., 1.79904909e-003, 0., 0.,
          0., 8.80767871e-003, 0., 0., 0., 7.58989574e-003,
          5.14139514e-003, 0., 6.32874155e-003, 3.59809818e-003, 0.,
          -2.70270277e-002, 0., 1.79904909e-003, 0., 1.18232472e-002, 0.,
          0., 6.35051262e-003, 0., 0., 0., 0., 0., -2.44222376e-002, 0.,
          0., 0., 0., 1.79904909e-003, 0., 1.51779468e-003,
          3.59809818e-003, 0., 5.39714703e-003, 3.03558935e-003, 0.,
          4.80518816e-003, 3.00613930e-003, 0., 1.31838927e-002,
          3.34234606e-003, 0., 0., 1.79904909e-003, 0., 3.34234606e-003,
          1.19641144e-002, 0., 1.02827614e-002, 0., 8.61706864e-003, 0.,
          0., 0., 2.53379368e-003, 3.59809818e-003, 0., 0., 0., 0.,
          3.79494787e-003, 0., 0., 5.39714703e-003, 0., 0.,
          -5.55555560e-002, 0., 0., 3.34234606e-003, 0., 0., 0., 0.,
          3.59809818e-003, 2.60479026e-003, 0., 0., 4.11757827e-003,
          3.34234606e-003, -2.70270277e-002, 5.94713632e-003, 0.,
          5.92163391e-003, 0., 0., 2.53379368e-003, -2.32151467e-002, 0.,
          6.68466324e-003, 1.79904909e-003, 0., 0., 0., 3.79494787e-003,
          8.00193753e-003, 0., 0., 3.79494787e-003, 0., 0., 0., 0., 0.,
          0., 0., 0., 5.39714703e-003, 0., 0., 5.11589274e-003,
          2.53379368e-003, 0., 0., 0., 0., 3.59809818e-003, 0.,
          1.51779468e-003, 2.89019127e-003, 0., 0., 8.80767871e-003,
          -2.34289300e-002, 1.79904909e-003, 1.79904909e-003, 0.,
          1.20709033e-003, -5.37565053e-002, 0., 0., 1.79904909e-003, 0.,
          1.20709033e-003, 0., 0., 3.79494787e-003, 0., 0., 0., 0., 0.,
          0., 0., 0., 0., 2.53379368e-003, 0., 1.79904909e-003, 0.,
          1.79904909e-003, 0., 0., 0., 2.53379368e-003, 0., 0., 0.,
          1.79904909e-003, 0., 0., 0., 1.79904909e-003, 3.59809818e-003,
          6.58538193e-003, 0., 5.61092980e-003, 1.31178303e-002,
          1.14124687e-002, 1.79904909e-003, 3.79494787e-003,
          -2.40208879e-002, 4.20391466e-003, 3.59809818e-003,
          2.53379368e-003, 0., 3.00613930e-003, 1.79904909e-003, 0., 0.,
          2.01767008e-003, 0., 2.01767008e-003, 0., 1.79904909e-003,
          1.51779468e-003, 0., 1.79904909e-003, 1.20709033e-003, 0.,
          3.79494787e-003, 9.28948261e-003, 0., 0., 0., 6.39973814e-003,
          2.60479026e-003, 0., 4.55338415e-003, 0., 0., 0., 0., 0.,
          2.60479026e-003, 9.24492069e-003, 0., 1.26165161e-002,
          2.53744777e-002, 0., 3.31684365e-003, 0., 0., 0.,
          1.77845825e-002, 1.79904909e-003, 0., 8.48371256e-003, 0., 0.,
          1.20709033e-003, -4.46233153e-002, 0., 0., 0.,
          -2.34289300e-002, 0., 0., -5.55555560e-002, 0.,
          1.20709033e-003, 0., 1.13848429e-002, 0., 3.34234606e-003, 0.,
          1.79904909e-003, 0., 0., 0., 0., 0., 2.53379368e-003,
          5.59399696e-003, 8.00193753e-003, 0., 0., 2.53379368e-003, 0.,
          2.53379368e-003, 3.79494787e-003, 1.61914416e-002,
          3.94116994e-003, 0., 0., 1.69957727e-002, 0., 0., 0., 0.,
          1.61914416e-002, 1.79904909e-003, 0., 0., 0., 0.,
          5.61576802e-003, -2.18856335e-002, 0., 0., 0., 0., 0.,
          1.79904909e-003, 0., -2.70270277e-002, 0., 1.20709033e-003, 0.,
          0., 0., 0., 2.01767008e-003, 0., 0., 0., 0., 3.34234606e-003,
          0., 1.20709033e-003, 0., 0., 0., 0., 1.51779468e-003, 0.,
          3.34234606e-003, 0., 5.20958053e-003, 0., 1.79904909e-003,
          1.51779468e-003, 0., 0., 2.01767008e-003, 0., -2.58199368e-002,
          0., 0., 9.10769030e-003, 1.79904909e-003, 0., 0., 0., 0., 0.,
          3.59809818e-003, 3.94116994e-003, 0., 0., 0., 2.53379368e-003,
          0., 5.91662759e-003, 2.01767008e-003, 6.94044400e-003, 0.,
          3.34234606e-003, 0., 0., 4.11757827e-003, -2.18174476e-002,
          3.79494787e-003, 0., 0., 0., 0., -2.55092327e-002, 0., 0., 0.,
          0., 2.01767008e-003, 0., 2.53379368e-003, 2.62078438e-002,
          -5.55555560e-002, 7.58989574e-003, 0., 0., 1.33401826e-002, 0.,
          0., 0., 0., 0., 0., 2.27829665e-002, 0., 1.86463539e-002,
          1.30239511e-002, 2.37317178e-002, 1.51779468e-003,
          7.63343833e-003, -5.55555560e-002, 0., 3.34234606e-003, 0., 0.,
          -5.07117100e-002, 1.79904909e-003, 0., 0., 1.79904909e-003, 0.,
          -2.70270277e-002, 4.72940365e-003, 0., 2.62744655e-003,
          3.00613930e-003, 0., 1.79904909e-003, 0., 1.79904909e-003, 0.,
          0., 0., 0., -2.70270277e-002, 0., 0., 3.34234606e-003,
          -5.29507659e-002, 0., 0., 0., 0., 6.35243300e-003, 0.,
          4.54943627e-003, 0., 0., 0., 0., 0., 0., 0., 1.59382280e-002,
          8.60013627e-003, 0., 3.74088390e-003, 0., 0., 2.53379368e-003,
          7.58989574e-003, 1.79904909e-003, 0., 0., 0., 1.51779468e-003,
          0., 0., 0., 0., 1.03877736e-002, 0., 0., -5.29507659e-002,
          2.01767008e-003, 0., 0., 0., 0., 0., 0., 0., 0.,
          7.39304582e-003, 0., 1.79904909e-003, 1.79904909e-003, 0., 0.,
          0., 0., 0., 0., 8.99524521e-003, 0., 0., -2.70270277e-002,
          3.00613930e-003, 0., 3.79494787e-003, 0., 0., 0.,
          7.40997866e-003, -2.32103094e-002, 1.79904909e-003,
          2.53379368e-003, 0., 0., 0., 2.72488501e-003, 0.,
          2.53379368e-003, 0., 0., 6.68466324e-003, 1.79904909e-003, 0.,
          0., 0., 3.34234606e-003, 5.25489333e-004, 0., 0., 0., 0.,
          5.81261795e-003, 0., 3.34234606e-003, 0., 5.59399696e-003,
          6.68466324e-003, 0., 0., 3.79494787e-003, 2.53379368e-003, 0.,
          1.63868815e-002, 0., 5.59399696e-003, 0., 0., 0.,
          6.60423748e-003, 0., 0., 0., 0., 2.89019127e-003,
          1.20709033e-003, 6.39973814e-003, -2.55092327e-002, 0., 0.,
          -2.70270277e-002, 1.79904909e-003, 3.79494787e-003,
          1.01434337e-002, 3.79494787e-003, 1.79904909e-003,
          7.71567645e-003, 0., -1.46742929e-002, 0., 5.14139514e-003, 0.,
          0., 0., 0., 1.79904909e-003, 0., -5.35378866e-002,
          2.60479026e-003, 0., 1.20709033e-003, 3.34234606e-003,
          2.60479026e-003, 0., 0., 2.60479026e-003, 1.01351747e-002,
          2.72488501e-003, 1.20709033e-003, 0., 0., 0., 0.,
          2.01767008e-003, 0., 3.79494787e-003, 6.34848559e-003, 0., 0.,
          0., 0., 2.60479026e-003, 0., 0., 0., 4.40383935e-003, 0.,
          1.79904909e-003, 4.80518816e-003, 1.51779468e-003,
          6.65137172e-003, 6.41667098e-003, 7.39304582e-003, 0., 0.,
          1.51779468e-003, 0., 0., 0., 0., 0., 0., 2.53379368e-003, 0.,
          1.79904909e-003, 1.79904909e-003, 0., 0., 0., -5.55555560e-002,
          0., 0., 0., 0., 0., 1.25933429e-002, 0., 0., 0., 0., 0., 0.,
          1.20709033e-003, 0., -2.26941854e-002, 0., 0., 9.53789800e-003,
          0., 7.93429743e-003, 0., -2.06272900e-002, 8.23515654e-003,
          3.79494787e-003, 1.79904909e-003, 1.79904909e-003, 0., 0., 0.,
          0., 5.59399696e-003, 0., 0., 3.59809818e-003, 0., 0.,
          5.05325943e-003, 1.79904909e-003, 0., -4.70454246e-002,
          -5.17606065e-002, 3.34234606e-003, 2.53379368e-003,
          6.68466324e-003, 0., 0., 6.06723083e-003, 6.39973814e-003,
          1.79904909e-003, -5.37565053e-002, 0., 0., 0., 0.,
          2.01767008e-003, 3.34234606e-003, 0., 3.34234606e-003,
          6.20288821e-003, 3.34234606e-003, 1.79904909e-003, 0., 0., 0.,
          0., 4.54943627e-003, 0., 0., 3.79494787e-003, 2.53379368e-003,
          5.59399696e-003, 6.13189163e-003, 0., 0., 0., 0., 0., 0., 0.,
          0., 0., 4.40383935e-003, 0., 2.60479026e-003, 0.,
          -2.34289300e-002, 0., 0., 4.11757827e-003, 1.02827614e-002,
          8.60013627e-003, 0., 5.59399696e-003, 0., 0., 0., 0., 0., 0.,
          -9.53224301e-002, 0., 0., 0., 0., 0., 0., 0., 0., 0.,
          3.59809818e-003, 1.79904909e-003, 0., 0., 1.20709033e-003, 0.,
          0., 0., 0., 0., 0., 0., 0., 0., 8.99524521e-003, 0., 0., 0.,
          0., 5.14139514e-003, 0., 0., 9.84795764e-003, 8.00193753e-003,
          2.60479026e-003, 0., 1.79904909e-003, 0., 0., 5.14139514e-003,
          3.22476053e-003, 0., 0., 0., 0., 0., 0., 2.53379368e-003, 0.,
          0., 0., 0., 0., 0., 0., 0., 1.79904909e-003, 0., 0., 0.,
          1.20709033e-003, 3.00613930e-003, 0., 0., 2.60479026e-003, 0.,
          0., 0., 0., 0., 0., 4.54943627e-003, 0., 0., 0., 0., 0., 0.,
          0., 0., 0., 0., 2.53379368e-003, 7.58989574e-003,
          5.61092980e-003, 3.79494787e-003, 0., 0., 0., 0., 0.,
          1.79904909e-003, 1.79904909e-003 ]
   decision_functions:
      -
         sv_count: 1
         rho: -9.9585159487568664e-001
         alpha: [ 1. ]
         index: [ 0 ]
