%YAML:1.0
my_svm: !!opencv-ml-svm
   svm_type: C_SVC
   kernel: { type:LINEAR }
   C: 1.
   term_criteria: { epsilon:2.2204460492503131e-016, iterations:1000 }
   var_all: 1000
   var_count: 1000
   class_count: 2
   class_labels: !!opencv-matrix
      rows: 1
      cols: 2
      dt: i
      data: [ 0, 1 ]
   sv_total: 1
   support_vectors:
      - [ 0., 6.35828823e-002, 5.06061018e-002, 0., -1.07981220e-001, 0.,
          1.71260387e-002, 0., 0., 2.70270277e-002, -1.74789242e-002,
          -2.85714283e-003, 6.54317662e-002, 4.99561168e-002, 0.,
          -2.85714283e-003, 5.03919460e-003, 1.42857144e-002,
          2.64974684e-002, 0., 0., -1.75438598e-002, -6.35292754e-002,
          -3.75586860e-002, 0., -4.69483584e-002, -8.57142825e-003, 0.,
          -2.12765951e-002, 4.69172932e-002, -9.90098994e-003,
          -8.45070407e-002, 0., -9.90098994e-003, 0., -2.85714283e-003,
          -2.85714283e-003, -9.90098994e-003, 5.71428575e-002, 0., 0.,
          0., 0., -5.71428565e-003, -2.85714283e-003, -1.75438598e-002,
          -1.75438598e-002, -1.13636367e-002, 0., 1.42857144e-002, 0.,
          0., 0., 0., 1.16567425e-001, 0., -9.90098994e-003, 0., 0., 0.,
          0., 1.42857144e-002, 2.63157897e-002, 0., 2.50000004e-002,
          -2.28571426e-002, 0., 0., 0., -9.90098994e-003, 0.,
          -1.99999996e-002, -2.12765951e-002, 0., 0., -2.85714283e-003,
          -2.27272734e-002, -2.61152871e-002, 5.14974706e-002, 0.,
          -9.90098994e-003, -5.71428565e-003, -1.07981220e-001, 0., 0.,
          0., 0., 0., 0., -1.98019799e-002, -2.12765951e-002, 0.,
          -4.22535203e-002, 5.29949367e-002, 3.89342979e-002,
          -1.42857144e-002, 0., 0., 2.28571426e-002, 0., 0., 0.,
          -2.85714283e-003, 0., 2.34586466e-002, 0., -2.85714283e-003,
          0., 2.41698846e-002, 0., -9.90098994e-003, -5.71428565e-003,
          5.14974706e-002, 0., 0., 0., 0., 0., -2.85714283e-003,
          -1.84724182e-002, 0., -2.85714283e-003, 0., 0., 0., 0.,
          -2.85714283e-003, -5.71428565e-003, 7.22504780e-003,
          -7.25868531e-003, -2.04010028e-002, 3.63203883e-002, 0.,
          8.57142918e-003, 0., 4.12959233e-002, 0., 0., 0., 0., 0.,
          2.34586466e-002, 2.57142857e-002, 2.70270277e-002,
          1.14285713e-002, 0., 0., 2.50000004e-002, -2.12765951e-002, 0.,
          -2.85714283e-003, 0., 0., 0., 0., 1.42857144e-002,
          -2.85714283e-003, 0., 0., -7.76409060e-002, 0.,
          -2.85714283e-003, 0., 3.63853239e-002, -3.50877196e-002, 0.,
          2.50000004e-002, -8.57142825e-003, 0., 0., 2.70270277e-002,
          -2.85714283e-003, 0., -1.75438598e-002, -1.71428565e-002, 0.,
          0., 0., 0., -3.50877196e-002, -2.85714283e-003, 0., 0.,
          -3.79448608e-002, -1.75438598e-002, 0., 0., 0., 0.,
          -9.90098994e-003, -8.45070407e-002, 0., 0., -1.14285713e-002,
          0., -2.85714283e-003, 0., 0., -2.12765951e-002,
          7.29483366e-003, -1.46867167e-002, 0., -2.41337381e-002,
          -2.81690136e-002, 2.63157897e-002, 0., 8.57142918e-003,
          -1.75438598e-002, 0., 0., -9.09090973e-003, -2.85714283e-003,
          0., 1.28062479e-002, 0., 2.34586466e-002, 0., -1.27581330e-002,
          -1.70779228e-002, 2.64974684e-002, -2.27272734e-002, 0., 0.,
          0., 0., 0., -2.85714283e-003, 0., 0., 0., -2.84415595e-002, 0.,
          0., 0., -1.98019799e-002, -2.04010028e-002, 0.,
          1.50990104e-002, -5.71428565e-003, 0., 2.70270277e-002, 0.,
          -2.85714283e-003, 0., 5.25706634e-002, 0., 0., 4.84586470e-002,
          0., 0., 0., 0., 0., 1.56633910e-002, 0., 0., 0., 0.,
          -2.85714283e-003, 0., -2.12765951e-002, -5.71428565e-003, 0.,
          -8.57142825e-003, -4.25531901e-002, 0., 8.57142918e-003,
          1.14285713e-002, 0., -3.25601101e-002, -1.75438598e-002, 0.,
          0., -2.85714283e-003, 0., -1.75438598e-002, 2.03198846e-002,
          0., 3.32200155e-002, 0., 1.14935059e-002, 0., 0., 0.,
          2.50000004e-002, -5.71428565e-003, 0., 0., 0., 0.,
          -9.90098994e-003, 0., 0., -8.57142825e-003, 0., 0.,
          5.06061018e-002, 0., 0., -1.75438598e-002, 0., 0., 0., 0.,
          -5.71428565e-003, -1.13636367e-002, 0., 0., 2.64974684e-002,
          -1.75438598e-002, 2.70270277e-002, -2.89074965e-002, 0.,
          -3.54973748e-002, 0., 0., 2.50000004e-002, 2.99491063e-002, 0.,
          3.89342979e-002, -2.85714283e-003, 0., 0., 0.,
          -9.90098994e-003, -1.99350640e-002, 0., 0., -9.90098994e-003,
          0., 0., 0., 0., 0., 0., 0., 0., -8.57142825e-003, 0., 0.,
          -2.69908812e-002, 2.50000004e-002, 0., 0., 0., 0.,
          -5.71428565e-003, 0., -2.12765951e-002, -5.16431928e-002, 0.,
          0., -2.84415595e-002, 2.13127416e-002, -2.85714283e-003,
          -2.85714283e-003, 0., 1.42857144e-002, 4.77489606e-002, 0., 0.,
          -2.85714283e-003, 0., 1.42857144e-002, 0., 0.,
          -9.90098994e-003, 0., 0., 0., 0., 0., 0., 0., 0., 0.,
          2.50000004e-002, 0., -2.85714283e-003, 0., -2.85714283e-003,
          0., 0., 0., 2.50000004e-002, 0., 0., 0., -2.85714283e-003, 0.,
          0., 0., -2.85714283e-003, -5.71428565e-003, 2.87234057e-002,
          0., 6.49348367e-005, -4.69259471e-002, -3.98051962e-002,
          -2.85714283e-003, -9.90098994e-003, 3.84555981e-002,
          -7.51173720e-002, -5.71428565e-003, 2.50000004e-002, 0.,
          1.14285713e-002, -2.85714283e-003, 0., 0., 2.63157897e-002, 0.,
          2.63157897e-002, 0., -2.85714283e-003, -2.12765951e-002, 0.,
          -2.85714283e-003, 1.42857144e-002, 0., -9.90098994e-003,
          -4.64513563e-002, 0., 0., 0., -2.12646276e-002,
          -1.13636367e-002, 0., -6.38297871e-002, 0., 0., 0., 0., 0.,
          -1.13636367e-002, 2.99043059e-002, 0., 2.85714306e-002,
          -7.07695782e-002, 0., -2.41337381e-002, 0., 0., 0.,
          -5.09675965e-002, -2.85714283e-003, 0., 3.60771567e-002, 0.,
          0., 1.42857144e-002, 1.32602621e-002, 0., 0., 0.,
          2.13127416e-002, 0., 0., 5.06061018e-002, 0., 1.42857144e-002,
          0., -2.97029689e-002, 0., -1.75438598e-002, 0.,
          -2.85714283e-003, 0., 0., 0., 0., 0., 2.50000004e-002,
          -1.27581330e-002, -1.99350640e-002, 0., 0., 2.50000004e-002,
          0., 2.50000004e-002, -9.90098994e-003, -2.57142857e-002,
          -7.04225376e-002, 0., 0., -2.96380334e-002, 0., 0., 0., 0.,
          -2.57142857e-002, -2.85714283e-003, 0., 0., 0., 0.,
          2.06015036e-002, 6.62602484e-003, 0., 0., 0., 0., 0.,
          -2.85714283e-003, 0., 2.70270277e-002, 0., 1.42857144e-002, 0.,
          0., 0., 0., 2.63157897e-002, 0., 0., 0., 0., -1.75438598e-002,
          0., 1.42857144e-002, 0., 0., 0., 0., -2.12765951e-002, 0.,
          -1.75438598e-002, 0., -2.27272734e-002, 0., -2.85714283e-003,
          -2.12765951e-002, 0., 0., 2.63157897e-002, 0., 4.13127430e-002,
          0., 0., -4.10785750e-002, -2.85714283e-003, 0., 0., 0., 0., 0.,
          -5.71428565e-003, -7.04225376e-002, 0., 0., 0.,
          2.50000004e-002, 0., 2.36403253e-002, 2.63157897e-002,
          -2.32581459e-002, 0., -1.75438598e-002, 0., 0.,
          2.64974684e-002, 4.29975428e-003, -9.90098994e-003, 0., 0., 0.,
          0., 5.75043261e-003, 0., 0., 0., 0., 2.63157897e-002, 0.,
          2.50000004e-002, -8.93782973e-002, 5.06061018e-002,
          -1.98019799e-002, 0., 0., -4.45227735e-002, 0., 0., 0., 0., 0.,
          0., -8.28035995e-002, 0., 5.89473657e-002, -5.68181835e-002,
          -7.98750967e-002, -2.12765951e-002, 4.69172932e-002,
          5.06061018e-002, 0., -1.75438598e-002, 0., 0., 3.65101956e-002,
          -2.85714283e-003, 0., 0., -2.85714283e-003, 0.,
          2.70270277e-002, -8.45070407e-002, 0., -4.69483584e-002,
          1.14285713e-002, 0., -2.85714283e-003, 0., -2.85714283e-003,
          0., 0., 0., 0., 2.70270277e-002, 0., 0., -1.75438598e-002,
          3.92424650e-002, 0., 0., 0., 0., -6.66869283e-002, 0.,
          -3.25814541e-003, 0., 0., 0., 0., 0., 0., 0., -9.35327560e-002,
          -1.32956123e-003, 0., 3.92857157e-002, 0., 0., 2.50000004e-002,
          -1.98019799e-002, -2.85714283e-003, 0., 0., 0.,
          -2.12765951e-002, 0., 0., 0., 0., -1.40553508e-002, 0., 0.,
          3.92424650e-002, 2.63157897e-002, 0., 0., 0., 0., 0., 0., 0.,
          0., -1.56152751e-002, 0., -2.85714283e-003, -2.85714283e-003,
          0., 0., 0., 0., 0., 0., -1.42857144e-002, 0., 0.,
          2.70270277e-002, 1.14285713e-002, 0., -9.90098994e-003, 0., 0.,
          0., -2.79220799e-003, 5.04856743e-002, -2.85714283e-003,
          2.50000004e-002, 0., 0., 0., -6.99088071e-003, 0.,
          2.50000004e-002, 0., 0., 3.89342979e-002, -2.85714283e-003, 0.,
          0., 0., -1.75438598e-002, -9.38967150e-003, 0., 0., 0., 0.,
          1.64147988e-002, 0., -1.75438598e-002, 0., -1.27581330e-002,
          3.89342979e-002, 0., 0., -9.90098994e-003, 2.50000004e-002, 0.,
          -2.53182463e-002, 0., -1.27581330e-002, 0., 0., 0.,
          5.71428612e-003, 0., 0., 0., 0., -5.16431928e-002,
          1.42857144e-002, -2.12646276e-002, 5.75043261e-003, 0., 0.,
          2.70270277e-002, -2.85714283e-003, -9.90098994e-003,
          -1.60162784e-002, -9.90098994e-003, -2.85714283e-003,
          2.07831841e-002, 0., 1.06519438e-001, 0., -2.04010028e-002, 0.,
          0., 0., 0., -2.85714283e-003, 0., 7.69218877e-002,
          -1.13636367e-002, 0., 1.42857144e-002, -1.75438598e-002,
          -1.13636367e-002, 0., 0., -1.13636367e-002, 1.00000001e-001,
          -6.99088071e-003, 1.42857144e-002, 0., 0., 0., 0.,
          2.63157897e-002, 0., -9.90098994e-003, -6.11528847e-003, 0.,
          0., 0., 0., -1.13636367e-002, 0., 0., 0., -1.42207798e-002, 0.,
          -2.85714283e-003, 8.57142918e-003, -2.12765951e-002,
          5.14974706e-002, -8.44155904e-003, -1.56152751e-002, 0., 0.,
          -2.12765951e-002, 0., 0., 0., 0., 0., 0., 2.50000004e-002, 0.,
          -2.85714283e-003, -2.85714283e-003, 0., 0., 0.,
          5.06061018e-002, 0., 0., 0., 0., 0., -1.99999996e-002, 0., 0.,
          0., 0., 0., 0., 1.42857144e-002, 0., 4.91698869e-002, 0., 0.,
          6.64974675e-002, 0., 4.99561168e-002, 0., 5.76240104e-003,
          5.29949367e-002, -9.90098994e-003, -2.85714283e-003,
          -2.85714283e-003, 0., 0., 0., 0., -1.27581330e-002, 0., 0.,
          -5.71428565e-003, 0., 0., -1.62374005e-002, -2.85714283e-003,
          0., 2.84696389e-002, 4.07051109e-002, -1.75438598e-002,
          2.50000004e-002, 3.89342979e-002, 0., 0., -2.45347396e-002,
          -2.12646276e-002, -2.85714283e-003, 4.77489606e-002, 0., 0.,
          0., 0., 2.63157897e-002, -1.75438598e-002, 0.,
          -1.75438598e-002, -1.70779228e-002, -1.75438598e-002,
          -2.85714283e-003, 0., 0., 0., 0., -3.25814541e-003, 0., 0.,
          -9.90098994e-003, 2.50000004e-002, -1.27581330e-002,
          1.92857143e-002, 0., 0., 0., 0., 0., 0., 0., 0., 0.,
          -1.42207798e-002, 0., -1.13636367e-002, 0., 2.13127416e-002,
          0., 0., 2.64974684e-002, 3.32200155e-002, -1.32956123e-003, 0.,
          -1.27581330e-002, 0., 0., 0., 0., 0., 0., 5.72884567e-002, 0.,
          0., 0., 0., 0., 0., 0., 0., 0., -5.71428565e-003,
          -2.85714283e-003, 0., 0., 1.42857144e-002, 0., 0., 0., 0., 0.,
          0., 0., 0., 0., -1.42857144e-002, 0., 0., 0., 0.,
          -2.04010028e-002, 0., 0., 6.90463781e-002, -1.99350640e-002,
          -1.13636367e-002, 0., -2.85714283e-003, 0., 0.,
          -2.04010028e-002, 4.06015031e-002, 0., 0., 0., 0., 0., 0.,
          2.50000004e-002, 0., 0., 0., 0., 0., 0., 0., 0.,
          -2.85714283e-003, 0., 0., 0., 1.42857144e-002, 1.14285713e-002,
          0., 0., -1.13636367e-002, 0., 0., 0., 0., 0., 0.,
          -3.25814541e-003, 0., 0., 0., 0., 0., 0., 0., 0., 0., 0.,
          2.50000004e-002, -1.98019799e-002, 6.49348367e-005,
          -9.90098994e-003, 0., 0., 0., 0., 0., -2.85714283e-003,
          -2.85714283e-003 ]
   decision_functions:
      -
         sv_count: 1
         rho: -9.4931351259973351e-001
         alpha: [ 1. ]
         index: [ 0 ]
