%YAML:1.0
my_svm: !!opencv-ml-svm
   svm_type: C_SVC
   kernel: { type:LINEAR }
   C: 1.
   term_criteria: { epsilon:2.2204460492503131e-016, iterations:1000 }
   var_all: 1000
   var_count: 1000
   class_count: 2
   class_labels: !!opencv-matrix
      rows: 1
      cols: 2
      dt: i
      data: [ 0, 1 ]
   sv_total: 1
   support_vectors:
      - [ 0., -1.39560446e-001, 1.60694923e-002, 0., 3.02383937e-002, 0.,
          2.55503412e-002, 0., 0., 1.86568070e-002, 8.44037440e-003,
          2.85714283e-003, -1.22377627e-001, -6.89131916e-002, 0.,
          2.85714283e-003, -1.12638352e-002, -1.42857144e-002,
          -4.54545468e-002, 0., 0., 1.32820150e-002, 4.54521775e-002,
          1.05177024e-002, 0., 1.31471278e-002, 8.57142825e-003, 0.,
          1.50519544e-002, -4.69172932e-002, 6.89353328e-003,
          2.36648303e-002, 0., 6.89353328e-003, 0., 2.85714283e-003,
          2.85714283e-003, 6.89353328e-003, -5.71428575e-002, 0., 0., 0.,
          0., 5.71428565e-003, 2.85714283e-003, 1.32820150e-002,
          1.32820150e-002, 6.58693071e-003, 0., -1.42857144e-002, 0., 0.,
          0., 0., -4.21967804e-002, 0., 6.89353328e-003, 0., 0., 0., 0.,
          -1.42857144e-002, -2.63157897e-002, 0., -2.50000004e-002,
          2.28571426e-002, 0., 0., 0., 6.89353328e-003, 0.,
          1.99999996e-002, 1.50519544e-002, 0., 0., 2.85714283e-003,
          1.31738614e-002, 2.18534432e-002, -7.04545453e-002, 0.,
          6.89353328e-003, 5.71428565e-003, 3.02383937e-002, 0., 0., 0.,
          0., 0., 0., 1.37870666e-002, 1.50519544e-002, 0.,
          1.18324151e-002, -9.09090936e-002, -7.69230798e-002,
          1.42857144e-002, 0., 0., -2.28571426e-002, 0., 0., 0.,
          2.85714283e-003, 0., -2.34586466e-002, 0., 2.85714283e-003, 0.,
          2.15139501e-002, 0., 6.89353328e-003, 5.71428565e-003,
          -7.04545453e-002, 0., 0., 0., 0., 0., 2.85714283e-003,
          1.54649615e-002, 0., 2.85714283e-003, 0., 0., 0., 0.,
          2.85714283e-003, 5.71428565e-003, 3.24438736e-002,
          5.29425219e-002, 1.61391590e-002, 3.03552076e-002, 0.,
          -8.57142918e-003, 0., 4.70642895e-002, 0., 0., 0., 0., 0.,
          -2.34586466e-002, -2.57142857e-002, 1.86568070e-002,
          -1.14285713e-002, 0., 0., -2.50000004e-002, 1.50519544e-002,
          0., 2.85714283e-003, 0., 0., 0., 0., -1.42857144e-002,
          2.85714283e-003, 0., 0., 5.66679388e-002, 0., 2.85714283e-003,
          0., 2.55135652e-002, 2.65640300e-002, 0., -2.50000004e-002,
          8.57142825e-003, 0., 0., 1.86568070e-002, 2.85714283e-003, 0.,
          1.32820150e-002, 1.71428565e-002, 0., 0., 0., 0.,
          2.65640300e-002, 2.85714283e-003, 0., 0., 2.94211730e-002,
          1.32820150e-002, 0., 0., 0., 0., 6.89353328e-003,
          2.36648303e-002, 0., 0., 1.14285713e-002, 0., 2.85714283e-003,
          0., 0., 1.50519544e-002, -1.35194743e-002, 1.04248719e-002, 0.,
          1.79090966e-002, 7.88827613e-003, -2.63157897e-002, 0.,
          -8.57142918e-003, 1.32820150e-002, 0., 0., -5.23920869e-003,
          2.85714283e-003, 0., 2.81008799e-002, 0., -2.34586466e-002, 0.,
          9.75067634e-003, 1.23012159e-002, -4.54545468e-002,
          1.31738614e-002, 0., 0., 0., 0., 0., 2.85714283e-003, 0., 0.,
          0., 1.88881475e-002, 0., 0., 0., 1.37870666e-002,
          1.61391590e-002, 0., -1.81064680e-002, 5.71428565e-003, 0.,
          1.86568070e-002, 0., 2.85714283e-003, 0., -9.53361467e-002, 0.,
          0., -4.84586470e-002, 0., 0., 0., 0., 0., 2.52437387e-002, 0.,
          0., 0., 0., 2.85714283e-003, 0., 1.50519544e-002,
          5.71428565e-003, 0., 8.57142825e-003, 3.01039089e-002, 0.,
          -8.57142918e-003, -1.14285713e-002, 0., 2.35377420e-002,
          1.32820150e-002, 0., 0., 2.85714283e-003, 0., 1.32820150e-002,
          -4.85090613e-002, 0., -7.12087974e-002, 0., -1.62702128e-002,
          0., 0., 0., -2.50000004e-002, 5.71428565e-003, 0., 0., 0., 0.,
          6.89353328e-003, 0., 0., 8.57142825e-003, 0., 0.,
          1.60694923e-002, 0., 0., 1.32820150e-002, 0., 0., 0., 0.,
          5.71428565e-003, 6.58693071e-003, 0., 0., -4.54545468e-002,
          1.32820150e-002, 1.86568070e-002, 1.98689457e-002, 0.,
          2.44960282e-002, 0., 0., -2.50000004e-002, 1.09580234e-002, 0.,
          -7.69230798e-002, 2.85714283e-003, 0., 0., 0., 6.89353328e-003,
          1.51583590e-002, 0., 0., 6.89353328e-003, 0., 0., 0., 0., 0.,
          0., 0., 0., 8.57142825e-003, 0., 0., 2.07662396e-002,
          -2.50000004e-002, 0., 0., 0., 0., 5.71428565e-003, 0.,
          1.50519544e-002, 1.44618405e-002, 0., 0., 1.88881475e-002,
          2.43710931e-002, 2.85714283e-003, 2.85714283e-003, 0.,
          -1.42857144e-002, 1.89266354e-002, 0., 0., 2.85714283e-003, 0.,
          -1.42857144e-002, 0., 0., 6.89353328e-003, 0., 0., 0., 0., 0.,
          0., 0., 0., 0., -2.50000004e-002, 0., 2.85714283e-003, 0.,
          2.85714283e-003, 0., 0., 0., -2.50000004e-002, 0., 0., 0.,
          2.85714283e-003, 0., 0., 0., 2.85714283e-003, 5.71428565e-003,
          -3.49480473e-002, 0., -4.84164106e-003, 3.59245986e-002,
          2.54750773e-002, 2.85714283e-003, 6.89353328e-003,
          7.22823571e-003, 2.10354049e-002, 5.71428565e-003,
          -2.50000004e-002, 0., -1.14285713e-002, 2.85714283e-003, 0.,
          0., -2.63157897e-002, 0., -2.63157897e-002, 0.,
          2.85714283e-003, 1.50519544e-002, 0., 2.85714283e-003,
          -1.42857144e-002, 0., 6.89353328e-003, 3.31509598e-002, 0., 0.,
          0., 1.34804640e-002, 6.58693071e-003, 0., 4.51558642e-002, 0.,
          0., 0., 0., 0., 6.58693071e-003, -3.94577198e-002, 0.,
          -2.85714306e-002, 4.79481257e-002, 0., 1.79090966e-002, 0., 0.,
          0., 3.41610610e-002, 2.85714283e-003, 0., -7.40659386e-002, 0.,
          0., -1.42857144e-002, 4.31385748e-002, 0., 0., 0.,
          2.43710931e-002, 0., 0., 1.60694923e-002, 0., -1.42857144e-002,
          0., 2.06805989e-002, 0., 1.32820150e-002, 0., 2.85714283e-003,
          0., 0., 0., 0., 0., -2.50000004e-002, 9.75067634e-003,
          1.51583590e-002, 0., 0., -2.50000004e-002, 0.,
          -2.50000004e-002, 6.89353328e-003, 2.57142857e-002,
          1.97206922e-002, 0., 0., 1.58389583e-002, 0., 0., 0., 0.,
          2.57142857e-002, 2.85714283e-003, 0., 0., 0., 0.,
          -2.06015036e-002, 3.47959660e-002, 0., 0., 0., 0., 0.,
          2.85714283e-003, 0., 1.86568070e-002, 0., -1.42857144e-002, 0.,
          0., 0., 0., -2.63157897e-002, 0., 0., 0., 0., 1.32820150e-002,
          0., -1.42857144e-002, 0., 0., 0., 0., 1.50519544e-002, 0.,
          1.32820150e-002, 0., 1.31738614e-002, 0., 2.85714283e-003,
          1.50519544e-002, 0., 0., -2.63157897e-002, 0., 4.37109312e-003,
          0., 0., 2.88390201e-002, 2.85714283e-003, 0., 0., 0., 0., 0.,
          5.71428565e-003, 1.97206922e-002, 0., 0., 0., -2.50000004e-002,
          0., -4.25974056e-002, -2.63157897e-002, 1.89963002e-002, 0.,
          1.32820150e-002, 0., 0., -4.54545468e-002, 3.18306684e-002,
          6.89353328e-003, 0., 0., 0., 0., 3.37087624e-002, 0., 0., 0.,
          0., -2.63157897e-002, 0., -2.50000004e-002, 5.64723946e-002,
          1.60694923e-002, 1.37870666e-002, 0., 0., 3.24767642e-002, 0.,
          0., 0., 0., 0., 0., 4.51048128e-002, 0., -5.89473657e-002,
          3.29346508e-002, 5.40300086e-002, 1.50519544e-002,
          -4.69172932e-002, 1.60694923e-002, 0., 1.32820150e-002, 0., 0.,
          5.05956300e-002, 2.85714283e-003, 0., 0., 2.85714283e-003, 0.,
          1.86568070e-002, 2.36648303e-002, 0., 1.31471278e-002,
          -1.14285713e-002, 0., 2.85714283e-003, 0., 2.85714283e-003, 0.,
          0., 0., 0., 1.86568070e-002, 0., 0., 1.32820150e-002,
          2.26564221e-002, 0., 0., 0., 0., 4.80130091e-002, 0.,
          -1.00369914e-003, 0., 0., 0., 0., 0., 0., 0., 6.58364668e-002,
          -1.67789566e-003, 0., -3.92857157e-002, 0., 0.,
          -2.50000004e-002, 1.37870666e-002, 2.85714283e-003, 0., 0., 0.,
          1.50519544e-002, 0., 0., 0., 0., -4.61857161e-003, 0., 0.,
          2.26564221e-002, -2.63157897e-002, 0., 0., 0., 0., 0., 0., 0.,
          0., 1.26078185e-002, 0., 2.85714283e-003, 2.85714283e-003, 0.,
          0., 0., 0., 0., 0., 1.42857144e-002, 0., 0., 1.86568070e-002,
          -1.14285713e-002, 0., 6.89353328e-003, 0., 0., 0.,
          -1.98449823e-003, -4.80183959e-003, 2.85714283e-003,
          -2.50000004e-002, 0., 0., 0., 7.66240119e-004, 0.,
          -2.50000004e-002, 0., 0., -7.69230798e-002, 2.85714283e-003,
          0., 0., 0., 1.32820150e-002, 2.62942561e-003, 0., 0., 0., 0.,
          -1.94222573e-002, 0., 1.32820150e-002, 0., 9.75067634e-003,
          -7.69230798e-002, 0., 0., 6.89353328e-003, -2.50000004e-002,
          0., 1.32884178e-002, 0., 9.75067634e-003, 0., 0., 0.,
          -5.71428612e-003, 0., 0., 0., 0., 1.44618405e-002,
          -1.42857144e-002, 1.34804640e-002, 3.37087624e-002, 0., 0.,
          1.86568070e-002, 2.85714283e-003, 6.89353328e-003,
          8.74697696e-003, 6.89353328e-003, 2.85714283e-003,
          -3.97402607e-002, 0., -1.17706835e-001, 0., 1.61391590e-002,
          0., 0., 0., 0., 2.85714283e-003, 0., -1.02462973e-002,
          6.58693071e-003, 0., -1.42857144e-002, 1.32820150e-002,
          6.58693071e-003, 0., 0., 6.58693071e-003, -1.00000001e-001,
          7.66240119e-004, -1.42857144e-002, 0., 0., 0., 0.,
          -2.63157897e-002, 0., 6.89353328e-003, 1.85344368e-003, 0., 0.,
          0., 0., 6.58693071e-003, 0., 0., 0., 9.44407377e-003, 0.,
          2.85714283e-003, -8.57142918e-003, 1.50519544e-002,
          -7.04545453e-002, -1.11185329e-003, 1.26078185e-002, 0., 0.,
          1.50519544e-002, 0., 0., 0., 0., 0., 0., -2.50000004e-002, 0.,
          2.85714283e-003, 2.85714283e-003, 0., 0., 0., 1.60694923e-002,
          0., 0., 0., 0., 0., 1.99999996e-002, 0., 0., 0., 0., 0., 0.,
          -1.42857144e-002, 0., -3.48605029e-003, 0., 0.,
          -8.54545459e-002, 0., -6.89131916e-002, 0., 3.21372710e-002,
          -9.09090936e-002, 6.89353328e-003, 2.85714283e-003,
          2.85714283e-003, 0., 0., 0., 0., 9.75067634e-003, 0., 0.,
          5.71428565e-003, 0., 0., 3.78811918e-003, 2.85714283e-003, 0.,
          5.33446185e-002, 2.29630247e-002, 1.32820150e-002,
          -2.50000004e-002, -7.69230798e-002, 0., 0., 1.40482550e-002,
          1.34804640e-002, 2.85714283e-003, 1.89266354e-002, 0., 0., 0.,
          0., -2.63157897e-002, 1.32820150e-002, 0., 1.32820150e-002,
          1.23012159e-002, 1.32820150e-002, 2.85714283e-003, 0., 0., 0.,
          0., -1.00369914e-003, 0., 0., 6.89353328e-003,
          -2.50000004e-002, 9.75067634e-003, -1.92857143e-002, 0., 0.,
          0., 0., 0., 0., 0., 0., 0., 9.44407377e-003, 0.,
          6.58693071e-003, 0., 2.43710931e-002, 0., 0., -4.54545468e-002,
          -7.12087974e-002, -1.67789566e-003, 0., 9.75067634e-003, 0.,
          0., 0., 0., 0., 0., 6.22636564e-002, 0., 0., 0., 0., 0., 0.,
          0., 0., 0., 5.71428565e-003, 2.85714283e-003, 0., 0.,
          -1.42857144e-002, 0., 0., 0., 0., 0., 0., 0., 0., 0.,
          1.42857144e-002, 0., 0., 0., 0., 1.61391590e-002, 0., 0.,
          -7.20538348e-002, 1.51583590e-002, 6.58693071e-003, 0.,
          2.85714283e-003, 0., 0., 1.61391590e-002, -4.06015031e-002, 0.,
          0., 0., 0., 0., 0., -2.50000004e-002, 0., 0., 0., 0., 0., 0.,
          0., 0., 2.85714283e-003, 0., 0., 0., -1.42857144e-002,
          -1.14285713e-002, 0., 0., 6.58693071e-003, 0., 0., 0., 0., 0.,
          0., -1.00369914e-003, 0., 0., 0., 0., 0., 0., 0., 0., 0., 0.,
          -2.50000004e-002, 1.37870666e-002, -4.84164106e-003,
          6.89353328e-003, 0., 0., 0., 0., 0., 2.85714283e-003,
          2.85714283e-003 ]
   decision_functions:
      -
         sv_count: 1
         rho: -9.7924235127304293e-001
         alpha: [ 1. ]
         index: [ 0 ]
